digraph Tree {
node [shape=box] ;
0 [label="TCAP <= -0.0021\ngini = 0.3393\nsamples = 333\nvalue = [416, 115]\nclass = Negative"] ;
1 [label="SF3A2 <= -1.4567\ngini = 0.2509\nsamples = 296\nvalue = [406, 70]\nclass = Negative"] ;
0 -> 1 [labeldistance=2.5, labelangle=45, headlabel="True"] ;
2 [label="gini = 0.0\nsamples = 4\nvalue = [0, 7]\nclass = Positive"] ;
1 -> 2 ;
3 [label="KRT28 <= 0.0236\ngini = 0.2326\nsamples = 292\nvalue = [406, 63]\nclass = Negative"] ;
1 -> 3 ;
4 [label="RHOB <= 1.585\ngini = 0.2072\nsamples = 287\nvalue = [406, 54]\nclass = Negative"] ;
3 -> 4 ;
5 [label="TMEM182 <= 3.0025\ngini = 0.1621\nsamples = 265\nvalue = [379, 37]\nclass = Negative"] ;
4 -> 5 ;
6 [label="TNP2 <= 4.4486\ngini = 0.1474\nsamples = 263\nvalue = [379, 33]\nclass = Negative"] ;
5 -> 6 ;
7 [label="C4orf33 <= 3.0455\ngini = 0.1359\nsamples = 262\nvalue = [379, 30]\nclass = Negative"] ;
6 -> 7 ;
8 [label="SERPINA12 <= 9.5157\ngini = 0.1242\nsamples = 260\nvalue = [379, 27]\nclass = Negative"] ;
7 -> 8 ;
9 [label="C5orf42 <= 2.9204\ngini = 0.1161\nsamples = 259\nvalue = [379, 25]\nclass = Negative"] ;
8 -> 9 ;
10 [label="CACNA2D4 <= 2.5236\ngini = 0.1039\nsamples = 257\nvalue = [378, 22]\nclass = Negative"] ;
9 -> 10 ;
11 [label="PA2G4P4 <= -1.4698\ngini = 0.0834\nsamples = 250\nvalue = [373, 17]\nclass = Negative"] ;
10 -> 11 ;
12 [label="VDAC2 <= -0.7435\ngini = 0.375\nsamples = 3\nvalue = [1, 3]\nclass = Positive"] ;
11 -> 12 ;
13 [label="gini = 0.0\nsamples = 1\nvalue = [1, 0]\nclass = Negative"] ;
12 -> 13 ;
14 [label="gini = 0.0\nsamples = 2\nvalue = [0, 3]\nclass = Positive"] ;
12 -> 14 ;
15 [label="MIR20B <= 5.2026\ngini = 0.0699\nsamples = 247\nvalue = [372, 14]\nclass = Negative"] ;
11 -> 15 ;
16 [label="LOH12CR2 <= -0.9875\ngini = 0.0605\nsamples = 246\nvalue = [372, 12]\nclass = Negative"] ;
15 -> 16 ;
17 [label="RASAL1 <= -0.4084\ngini = 0.5\nsamples = 5\nvalue = [3, 3]\nclass = Negative"] ;
16 -> 17 ;
18 [label="gini = 0.0\nsamples = 2\nvalue = [3, 0]\nclass = Negative"] ;
17 -> 18 ;
19 [label="gini = 0.0\nsamples = 3\nvalue = [0, 3]\nclass = Positive"] ;
17 -> 19 ;
20 [label="HNRNPUL1 <= 3.1953\ngini = 0.0465\nsamples = 241\nvalue = [369, 9]\nclass = Negative"] ;
16 -> 20 ;
21 [label="NR2F1 <= 11.9666\ngini = 0.0365\nsamples = 239\nvalue = [369, 7]\nclass = Negative"] ;
20 -> 21 ;
22 [label="B3GNTL1 <= -1.0776\ngini = 0.0315\nsamples = 238\nvalue = [369, 6]\nclass = Negative"] ;
21 -> 22 ;
23 [label="gini = 0.0\nsamples = 1\nvalue = [0, 1]\nclass = Positive"] ;
22 -> 23 ;
24 [label="UTP6 <= 3.5371\ngini = 0.0264\nsamples = 237\nvalue = [369, 5]\nclass = Negative"] ;
22 -> 24 ;
25 [label="ATP6V1E1 <= -1.5606\ngini = 0.0212\nsamples = 236\nvalue = [369, 4]\nclass = Negative"] ;
24 -> 25 ;
26 [label="gini = 0.0\nsamples = 1\nvalue = [0, 1]\nclass = Positive"] ;
25 -> 26 ;
27 [label="GRSF1 <= 4.5113\ngini = 0.016\nsamples = 235\nvalue = [369, 3]\nclass = Negative"] ;
25 -> 27 ;
28 [label="GOLGA8E <= -0.789\ngini = 0.0107\nsamples = 234\nvalue = [369, 2]\nclass = Negative"] ;
27 -> 28 ;
29 [label="PRR3 <= -0.7572\ngini = 0.1372\nsamples = 18\nvalue = [25, 2]\nclass = Negative"] ;
28 -> 29 ;
30 [label="gini = 0.0\nsamples = 2\nvalue = [0, 2]\nclass = Positive"] ;
29 -> 30 ;
31 [label="gini = 0.0\nsamples = 16\nvalue = [25, 0]\nclass = Negative"] ;
29 -> 31 ;
32 [label="gini = 0.0\nsamples = 216\nvalue = [344, 0]\nclass = Negative"] ;
28 -> 32 ;
33 [label="gini = 0.0\nsamples = 1\nvalue = [0, 1]\nclass = Positive"] ;
27 -> 33 ;
34 [label="gini = 0.0\nsamples = 1\nvalue = [0, 1]\nclass = Positive"] ;
24 -> 34 ;
35 [label="gini = 0.0\nsamples = 1\nvalue = [0, 1]\nclass = Positive"] ;
21 -> 35 ;
36 [label="gini = 0.0\nsamples = 2\nvalue = [0, 2]\nclass = Positive"] ;
20 -> 36 ;
37 [label="gini = 0.0\nsamples = 1\nvalue = [0, 2]\nclass = Positive"] ;
15 -> 37 ;
38 [label="PSMB2 <= 0.0985\ngini = 0.5\nsamples = 7\nvalue = [5, 5]\nclass = Negative"] ;
10 -> 38 ;
39 [label="gini = 0.0\nsamples = 4\nvalue = [0, 5]\nclass = Positive"] ;
38 -> 39 ;
40 [label="gini = 0.0\nsamples = 3\nvalue = [5, 0]\nclass = Negative"] ;
38 -> 40 ;
41 [label="S100A14 <= -0.2682\ngini = 0.375\nsamples = 2\nvalue = [1, 3]\nclass = Positive"] ;
9 -> 41 ;
42 [label="gini = 0.0\nsamples = 1\nvalue = [0, 3]\nclass = Positive"] ;
41 -> 42 ;
43 [label="gini = 0.0\nsamples = 1\nvalue = [1, 0]\nclass = Negative"] ;
41 -> 43 ;
44 [label="gini = 0.0\nsamples = 1\nvalue = [0, 2]\nclass = Positive"] ;
8 -> 44 ;
45 [label="gini = 0.0\nsamples = 2\nvalue = [0, 3]\nclass = Positive"] ;
7 -> 45 ;
46 [label="gini = 0.0\nsamples = 1\nvalue = [0, 3]\nclass = Positive"] ;
6 -> 46 ;
47 [label="gini = 0.0\nsamples = 2\nvalue = [0, 4]\nclass = Positive"] ;
5 -> 47 ;
48 [label="ACADM <= -0.4722\ngini = 0.4742\nsamples = 22\nvalue = [27, 17]\nclass = Negative"] ;
4 -> 48 ;
49 [label="LOC100505738 <= -0.2195\ngini = 0.2188\nsamples = 8\nvalue = [2, 14]\nclass = Positive"] ;
48 -> 49 ;
50 [label="gini = 0.0\nsamples = 2\nvalue = [2, 0]\nclass = Negative"] ;
49 -> 50 ;
51 [label="gini = 0.0\nsamples = 6\nvalue = [0, 14]\nclass = Positive"] ;
49 -> 51 ;
52 [label="C2orf77 <= -0.1281\ngini = 0.1913\nsamples = 14\nvalue = [25, 3]\nclass = Negative"] ;
48 -> 52 ;
53 [label="gini = 0.0\nsamples = 2\nvalue = [0, 3]\nclass = Positive"] ;
52 -> 53 ;
54 [label="gini = 0.0\nsamples = 12\nvalue = [25, 0]\nclass = Negative"] ;
52 -> 54 ;
55 [label="gini = 0.0\nsamples = 5\nvalue = [0, 9]\nclass = Positive"] ;
3 -> 55 ;
56 [label="LOC254099 <= 0.7349\ngini = 0.2975\nsamples = 37\nvalue = [10, 45]\nclass = Positive"] ;
0 -> 56 [labeldistance=2.5, labelangle=-45, headlabel="False"] ;
57 [label="LINC00116 <= 2.8752\ngini = 0.0425\nsamples = 31\nvalue = [1, 45]\nclass = Positive"] ;
56 -> 57 ;
58 [label="gini = 0.0\nsamples = 30\nvalue = [0, 45]\nclass = Positive"] ;
57 -> 58 ;
59 [label="gini = 0.0\nsamples = 1\nvalue = [1, 0]\nclass = Negative"] ;
57 -> 59 ;
60 [label="gini = 0.0\nsamples = 6\nvalue = [9, 0]\nclass = Negative"] ;
56 -> 60 ;
}