digraph Tree {
node [shape=box] ;
0 [label="BLCAP <= -0.2259\ngini = 0.3539\nsamples = 340\nvalue = [409, 122]\nclass = Negative"] ;
1 [label="TRIM3 <= -0.7851\ngini = 0.4702\nsamples = 130\nvalue = [135, 82]\nclass = Negative"] ;
0 -> 1 [labeldistance=2.5, labelangle=45, headlabel="True"] ;
2 [label="RTN2 <= 1.0467\ngini = 0.1078\nsamples = 40\nvalue = [66, 4]\nclass = Negative"] ;
1 -> 2 ;
3 [label="OR51B4 <= 1.2375\ngini = 0.0571\nsamples = 39\nvalue = [66, 2]\nclass = Negative"] ;
2 -> 3 ;
4 [label="CSRNP3 <= 3.8857\ngini = 0.0294\nsamples = 38\nvalue = [66, 1]\nclass = Negative"] ;
3 -> 4 ;
5 [label="gini = 0.0\nsamples = 37\nvalue = [66, 0]\nclass = Negative"] ;
4 -> 5 ;
6 [label="gini = 0.0\nsamples = 1\nvalue = [0, 1]\nclass = Positive"] ;
4 -> 6 ;
7 [label="gini = 0.0\nsamples = 1\nvalue = [0, 1]\nclass = Positive"] ;
3 -> 7 ;
8 [label="gini = 0.0\nsamples = 1\nvalue = [0, 2]\nclass = Positive"] ;
2 -> 8 ;
9 [label="RAB41 <= -0.3758\ngini = 0.4981\nsamples = 90\nvalue = [69, 78]\nclass = Positive"] ;
1 -> 9 ;
10 [label="MGC4473 <= 0.5552\ngini = 0.2956\nsamples = 39\nvalue = [11, 50]\nclass = Positive"] ;
9 -> 10 ;
11 [label="IFRD2 <= 0.853\ngini = 0.2155\nsamples = 37\nvalue = [7, 50]\nclass = Positive"] ;
10 -> 11 ;
12 [label="PTPRN2 <= 1.9274\ngini = 0.1372\nsamples = 34\nvalue = [4, 50]\nclass = Positive"] ;
11 -> 12 ;
13 [label="CMTM8 <= -1.0691\ngini = 0.074\nsamples = 33\nvalue = [2, 50]\nclass = Positive"] ;
12 -> 13 ;
14 [label="gini = 0.0\nsamples = 1\nvalue = [1, 0]\nclass = Negative"] ;
13 -> 14 ;
15 [label="HAT1 <= 1.3795\ngini = 0.0384\nsamples = 32\nvalue = [1, 50]\nclass = Positive"] ;
13 -> 15 ;
16 [label="gini = 0.0\nsamples = 31\nvalue = [0, 50]\nclass = Positive"] ;
15 -> 16 ;
17 [label="gini = 0.0\nsamples = 1\nvalue = [1, 0]\nclass = Negative"] ;
15 -> 17 ;
18 [label="gini = 0.0\nsamples = 1\nvalue = [2, 0]\nclass = Negative"] ;
12 -> 18 ;
19 [label="gini = 0.0\nsamples = 3\nvalue = [3, 0]\nclass = Negative"] ;
11 -> 19 ;
20 [label="gini = 0.0\nsamples = 2\nvalue = [4, 0]\nclass = Negative"] ;
10 -> 20 ;
21 [label="ATXN1L <= 0.0305\ngini = 0.4392\nsamples = 51\nvalue = [58, 28]\nclass = Negative"] ;
9 -> 21 ;
22 [label="SIX5 <= -0.7078\ngini = 0.4839\nsamples = 21\nvalue = [16, 23]\nclass = Positive"] ;
21 -> 22 ;
23 [label="BPESC1 <= 0.4782\ngini = 0.1327\nsamples = 8\nvalue = [13, 1]\nclass = Negative"] ;
22 -> 23 ;
24 [label="gini = 0.0\nsamples = 7\nvalue = [13, 0]\nclass = Negative"] ;
23 -> 24 ;
25 [label="gini = 0.0\nsamples = 1\nvalue = [0, 1]\nclass = Positive"] ;
23 -> 25 ;
26 [label="APBA1 <= -0.4913\ngini = 0.2112\nsamples = 13\nvalue = [3, 22]\nclass = Positive"] ;
22 -> 26 ;
27 [label="gini = 0.0\nsamples = 3\nvalue = [3, 0]\nclass = Negative"] ;
26 -> 27 ;
28 [label="gini = 0.0\nsamples = 10\nvalue = [0, 22]\nclass = Positive"] ;
26 -> 28 ;
29 [label="MIDN <= -1.0503\ngini = 0.1901\nsamples = 30\nvalue = [42, 5]\nclass = Negative"] ;
21 -> 29 ;
30 [label="gini = 0.0\nsamples = 2\nvalue = [0, 3]\nclass = Positive"] ;
29 -> 30 ;
31 [label="LOC100505576 <= 0.5696\ngini = 0.0868\nsamples = 28\nvalue = [42, 2]\nclass = Negative"] ;
29 -> 31 ;
32 [label="gini = 0.0\nsamples = 25\nvalue = [41, 0]\nclass = Negative"] ;
31 -> 32 ;
33 [label="MARCH2 <= -0.759\ngini = 0.4444\nsamples = 3\nvalue = [1, 2]\nclass = Positive"] ;
31 -> 33 ;
34 [label="gini = 0.0\nsamples = 1\nvalue = [1, 0]\nclass = Negative"] ;
33 -> 34 ;
35 [label="gini = 0.0\nsamples = 2\nvalue = [0, 2]\nclass = Positive"] ;
33 -> 35 ;
36 [label="RALB <= 1.8927\ngini = 0.2223\nsamples = 210\nvalue = [274, 40]\nclass = Negative"] ;
0 -> 36 [labeldistance=2.5, labelangle=-45, headlabel="False"] ;
37 [label="ME2 <= -0.966\ngini = 0.1935\nsamples = 203\nvalue = [271, 33]\nclass = Negative"] ;
36 -> 37 ;
38 [label="ATP6V0CP3 <= 0.2141\ngini = 0.4844\nsamples = 11\nvalue = [7, 10]\nclass = Positive"] ;
37 -> 38 ;
39 [label="GPER <= -0.2069\ngini = 0.2188\nsamples = 7\nvalue = [7, 1]\nclass = Negative"] ;
38 -> 39 ;
40 [label="gini = 0.0\nsamples = 1\nvalue = [0, 1]\nclass = Positive"] ;
39 -> 40 ;
41 [label="gini = 0.0\nsamples = 6\nvalue = [7, 0]\nclass = Negative"] ;
39 -> 41 ;
42 [label="gini = 0.0\nsamples = 4\nvalue = [0, 9]\nclass = Positive"] ;
38 -> 42 ;
43 [label="MYO1D <= 1.4087\ngini = 0.1474\nsamples = 192\nvalue = [264, 23]\nclass = Negative"] ;
37 -> 43 ;
44 [label="BSCL2 <= 2.7241\ngini = 0.1207\nsamples = 187\nvalue = [261, 18]\nclass = Negative"] ;
43 -> 44 ;
45 [label="RAB34 <= 1.8253\ngini = 0.1031\nsamples = 184\nvalue = [260, 15]\nclass = Negative"] ;
44 -> 45 ;
46 [label="HSFY1P1 <= 1.7439\ngini = 0.0846\nsamples = 180\nvalue = [259, 12]\nclass = Negative"] ;
45 -> 46 ;
47 [label="CTRB1 <= 0.1671\ngini = 0.0518\nsamples = 174\nvalue = [256, 7]\nclass = Negative"] ;
46 -> 47 ;
48 [label="NKPD1 <= -0.3632\ngini = 0.0377\nsamples = 171\nvalue = [255, 5]\nclass = Negative"] ;
47 -> 48 ;
49 [label="gini = 0.0\nsamples = 1\nvalue = [0, 1]\nclass = Positive"] ;
48 -> 49 ;
50 [label="LOC643837 <= 3.1368\ngini = 0.0304\nsamples = 170\nvalue = [255, 4]\nclass = Negative"] ;
48 -> 50 ;
51 [label="MIR4728 <= 3.0168\ngini = 0.023\nsamples = 169\nvalue = [255, 3]\nclass = Negative"] ;
50 -> 51 ;
52 [label="C1orf51 <= -1.1101\ngini = 0.0154\nsamples = 168\nvalue = [255, 2]\nclass = Negative"] ;
51 -> 52 ;
53 [label="gini = 0.0\nsamples = 1\nvalue = [0, 1]\nclass = Positive"] ;
52 -> 53 ;
54 [label="LOC254128 <= 3.3027\ngini = 0.0078\nsamples = 167\nvalue = [255, 1]\nclass = Negative"] ;
52 -> 54 ;
55 [label="gini = 0.0\nsamples = 166\nvalue = [255, 0]\nclass = Negative"] ;
54 -> 55 ;
56 [label="gini = 0.0\nsamples = 1\nvalue = [0, 1]\nclass = Positive"] ;
54 -> 56 ;
57 [label="gini = 0.0\nsamples = 1\nvalue = [0, 1]\nclass = Positive"] ;
51 -> 57 ;
58 [label="gini = 0.0\nsamples = 1\nvalue = [0, 1]\nclass = Positive"] ;
50 -> 58 ;
59 [label="PID1 <= -0.8434\ngini = 0.4444\nsamples = 3\nvalue = [1, 2]\nclass = Positive"] ;
47 -> 59 ;
60 [label="gini = 0.0\nsamples = 1\nvalue = [1, 0]\nclass = Negative"] ;
59 -> 60 ;
61 [label="gini = 0.0\nsamples = 2\nvalue = [0, 2]\nclass = Positive"] ;
59 -> 61 ;
62 [label="MIR658 <= 1.0303\ngini = 0.4688\nsamples = 6\nvalue = [3, 5]\nclass = Positive"] ;
46 -> 62 ;
63 [label="gini = 0.0\nsamples = 4\nvalue = [0, 5]\nclass = Positive"] ;
62 -> 63 ;
64 [label="gini = 0.0\nsamples = 2\nvalue = [3, 0]\nclass = Negative"] ;
62 -> 64 ;
65 [label="CDK2AP2 <= -0.7602\ngini = 0.375\nsamples = 4\nvalue = [1, 3]\nclass = Positive"] ;
45 -> 65 ;
66 [label="gini = 0.0\nsamples = 1\nvalue = [1, 0]\nclass = Negative"] ;
65 -> 66 ;
67 [label="gini = 0.0\nsamples = 3\nvalue = [0, 3]\nclass = Positive"] ;
65 -> 67 ;
68 [label="BSN-AS2 <= -0.5187\ngini = 0.375\nsamples = 3\nvalue = [1, 3]\nclass = Positive"] ;
44 -> 68 ;
69 [label="gini = 0.0\nsamples = 1\nvalue = [1, 0]\nclass = Negative"] ;
68 -> 69 ;
70 [label="gini = 0.0\nsamples = 2\nvalue = [0, 3]\nclass = Positive"] ;
68 -> 70 ;
71 [label="UBOX5 <= 0.3006\ngini = 0.4688\nsamples = 5\nvalue = [3, 5]\nclass = Positive"] ;
43 -> 71 ;
72 [label="gini = 0.0\nsamples = 2\nvalue = [3, 0]\nclass = Negative"] ;
71 -> 72 ;
73 [label="gini = 0.0\nsamples = 3\nvalue = [0, 5]\nclass = Positive"] ;
71 -> 73 ;
74 [label="GPX1 <= -0.901\ngini = 0.42\nsamples = 7\nvalue = [3, 7]\nclass = Positive"] ;
36 -> 74 ;
75 [label="gini = 0.0\nsamples = 2\nvalue = [3, 0]\nclass = Negative"] ;
74 -> 75 ;
76 [label="gini = 0.0\nsamples = 5\nvalue = [0, 7]\nclass = Positive"] ;
74 -> 76 ;
}