digraph Tree {
node [shape=box] ;
0 [label="SAMD11 <= 0.7921\ngini = 0.324\nsamples = 342\nvalue = [423, 108]\nclass = Negative"] ;
1 [label="TFCP2L1 <= -0.3576\ngini = 0.2629\nsamples = 295\nvalue = [385, 71]\nclass = Negative"] ;
0 -> 1 [labeldistance=2.5, labelangle=45, headlabel="True"] ;
2 [label="LOC100131691 <= -0.8295\ngini = 0.4227\nsamples = 119\nvalue = [124, 54]\nclass = Negative"] ;
1 -> 2 ;
3 [label="gini = 0.0\nsamples = 9\nvalue = [0, 16]\nclass = Positive"] ;
2 -> 3 ;
4 [label="C8orf58 <= -1.0012\ngini = 0.3591\nsamples = 110\nvalue = [124, 38]\nclass = Negative"] ;
2 -> 4 ;
5 [label="COL6A2 <= -0.8099\ngini = 0.4012\nsamples = 12\nvalue = [5, 13]\nclass = Positive"] ;
4 -> 5 ;
6 [label="gini = 0.0\nsamples = 3\nvalue = [5, 0]\nclass = Negative"] ;
5 -> 6 ;
7 [label="gini = 0.0\nsamples = 9\nvalue = [0, 13]\nclass = Positive"] ;
5 -> 7 ;
8 [label="CASC3 <= 0.8508\ngini = 0.2869\nsamples = 98\nvalue = [119, 25]\nclass = Negative"] ;
4 -> 8 ;
9 [label="RHBDF2 <= -1.2872\ngini = 0.2188\nsamples = 91\nvalue = [119, 17]\nclass = Negative"] ;
8 -> 9 ;
10 [label="gini = 0.0\nsamples = 2\nvalue = [0, 3]\nclass = Positive"] ;
9 -> 10 ;
11 [label="OCRL <= 1.3001\ngini = 0.1884\nsamples = 89\nvalue = [119, 14]\nclass = Negative"] ;
9 -> 11 ;
12 [label="SCGB3A1 <= -0.1493\ngini = 0.1336\nsamples = 83\nvalue = [116, 9]\nclass = Negative"] ;
11 -> 12 ;
13 [label="DMAP1 <= -0.3526\ngini = 0.4898\nsamples = 7\nvalue = [3, 4]\nclass = Positive"] ;
12 -> 13 ;
14 [label="gini = 0.0\nsamples = 4\nvalue = [0, 4]\nclass = Positive"] ;
13 -> 14 ;
15 [label="gini = 0.0\nsamples = 3\nvalue = [3, 0]\nclass = Negative"] ;
13 -> 15 ;
16 [label="CRABP1 <= -0.2966\ngini = 0.0812\nsamples = 76\nvalue = [113, 5]\nclass = Negative"] ;
12 -> 16 ;
17 [label="GPA33 <= -0.2875\ngini = 0.4444\nsamples = 2\nvalue = [1, 2]\nclass = Positive"] ;
16 -> 17 ;
18 [label="gini = 0.0\nsamples = 1\nvalue = [0, 2]\nclass = Positive"] ;
17 -> 18 ;
19 [label="gini = 0.0\nsamples = 1\nvalue = [1, 0]\nclass = Negative"] ;
17 -> 19 ;
20 [label="CDRT1 <= 4.0322\ngini = 0.0508\nsamples = 74\nvalue = [112, 3]\nclass = Negative"] ;
16 -> 20 ;
21 [label="ZNF280B <= -0.7485\ngini = 0.0345\nsamples = 73\nvalue = [112, 2]\nclass = Negative"] ;
20 -> 21 ;
22 [label="gini = 0.0\nsamples = 1\nvalue = [0, 1]\nclass = Positive"] ;
21 -> 22 ;
23 [label="PSMA4 <= -1.0942\ngini = 0.0175\nsamples = 72\nvalue = [112, 1]\nclass = Negative"] ;
21 -> 23 ;
24 [label="gini = 0.0\nsamples = 1\nvalue = [0, 1]\nclass = Positive"] ;
23 -> 24 ;
25 [label="gini = 0.0\nsamples = 71\nvalue = [112, 0]\nclass = Negative"] ;
23 -> 25 ;
26 [label="gini = 0.0\nsamples = 1\nvalue = [0, 1]\nclass = Positive"] ;
20 -> 26 ;
27 [label="ARHGAP29 <= 0.0886\ngini = 0.4688\nsamples = 6\nvalue = [3, 5]\nclass = Positive"] ;
11 -> 27 ;
28 [label="gini = 0.0\nsamples = 4\nvalue = [0, 5]\nclass = Positive"] ;
27 -> 28 ;
29 [label="gini = 0.0\nsamples = 2\nvalue = [3, 0]\nclass = Negative"] ;
27 -> 29 ;
30 [label="gini = 0.0\nsamples = 7\nvalue = [0, 8]\nclass = Positive"] ;
8 -> 30 ;
31 [label="C20orf54 <= 4.5593\ngini = 0.1148\nsamples = 176\nvalue = [261, 17]\nclass = Negative"] ;
1 -> 31 ;
32 [label="EIF4A2 <= -1.7994\ngini = 0.0966\nsamples = 174\nvalue = [261, 14]\nclass = Negative"] ;
31 -> 32 ;
33 [label="gini = 0.0\nsamples = 1\nvalue = [0, 2]\nclass = Positive"] ;
32 -> 33 ;
34 [label="LOC285033 <= -1.2712\ngini = 0.084\nsamples = 173\nvalue = [261, 12]\nclass = Negative"] ;
32 -> 34 ;
35 [label="UBE2D3 <= -0.4033\ngini = 0.32\nsamples = 5\nvalue = [1, 4]\nclass = Positive"] ;
34 -> 35 ;
36 [label="gini = 0.0\nsamples = 1\nvalue = [1, 0]\nclass = Negative"] ;
35 -> 36 ;
37 [label="gini = 0.0\nsamples = 4\nvalue = [0, 4]\nclass = Positive"] ;
35 -> 37 ;
38 [label="FDX1L <= 3.7251\ngini = 0.0579\nsamples = 168\nvalue = [260, 8]\nclass = Negative"] ;
34 -> 38 ;
39 [label="IGFBP7 <= 2.6259\ngini = 0.0441\nsamples = 167\nvalue = [260, 6]\nclass = Negative"] ;
38 -> 39 ;
40 [label="CUBN <= -0.7418\ngini = 0.037\nsamples = 166\nvalue = [260, 5]\nclass = Negative"] ;
39 -> 40 ;
41 [label="gini = 0.0\nsamples = 1\nvalue = [0, 1]\nclass = Positive"] ;
40 -> 41 ;
42 [label="HOXC12 <= 4.6226\ngini = 0.0298\nsamples = 165\nvalue = [260, 4]\nclass = Negative"] ;
40 -> 42 ;
43 [label="TBC1D10B <= 2.8076\ngini = 0.0226\nsamples = 164\nvalue = [260, 3]\nclass = Negative"] ;
42 -> 43 ;
44 [label="ARL17A <= -1.3486\ngini = 0.0152\nsamples = 163\nvalue = [260, 2]\nclass = Negative"] ;
43 -> 44 ;
45 [label="gini = 0.0\nsamples = 1\nvalue = [0, 1]\nclass = Positive"] ;
44 -> 45 ;
46 [label="SETD4 <= -1.5165\ngini = 0.0076\nsamples = 162\nvalue = [260, 1]\nclass = Negative"] ;
44 -> 46 ;
47 [label="PRPF4 <= 1.0959\ngini = 0.5\nsamples = 2\nvalue = [1, 1]\nclass = Negative"] ;
46 -> 47 ;
48 [label="gini = 0.0\nsamples = 1\nvalue = [0, 1]\nclass = Positive"] ;
47 -> 48 ;
49 [label="gini = 0.0\nsamples = 1\nvalue = [1, 0]\nclass = Negative"] ;
47 -> 49 ;
50 [label="gini = 0.0\nsamples = 160\nvalue = [259, 0]\nclass = Negative"] ;
46 -> 50 ;
51 [label="gini = 0.0\nsamples = 1\nvalue = [0, 1]\nclass = Positive"] ;
43 -> 51 ;
52 [label="gini = 0.0\nsamples = 1\nvalue = [0, 1]\nclass = Positive"] ;
42 -> 52 ;
53 [label="gini = 0.0\nsamples = 1\nvalue = [0, 1]\nclass = Positive"] ;
39 -> 53 ;
54 [label="gini = 0.0\nsamples = 1\nvalue = [0, 2]\nclass = Positive"] ;
38 -> 54 ;
55 [label="gini = 0.0\nsamples = 2\nvalue = [0, 3]\nclass = Positive"] ;
31 -> 55 ;
56 [label="RPL19P12 <= -0.0301\ngini = 0.4999\nsamples = 47\nvalue = [38, 37]\nclass = Negative"] ;
0 -> 56 [labeldistance=2.5, labelangle=-45, headlabel="False"] ;
57 [label="C16orf79 <= -0.5515\ngini = 0.3096\nsamples = 32\nvalue = [38, 9]\nclass = Negative"] ;
56 -> 57 ;
58 [label="gini = 0.0\nsamples = 5\nvalue = [0, 5]\nclass = Positive"] ;
57 -> 58 ;
59 [label="ADSL <= -0.7445\ngini = 0.1723\nsamples = 27\nvalue = [38, 4]\nclass = Negative"] ;
57 -> 59 ;
60 [label="SRP68 <= -0.1106\ngini = 0.4898\nsamples = 5\nvalue = [3, 4]\nclass = Positive"] ;
59 -> 60 ;
61 [label="gini = 0.0\nsamples = 3\nvalue = [0, 4]\nclass = Positive"] ;
60 -> 61 ;
62 [label="gini = 0.0\nsamples = 2\nvalue = [3, 0]\nclass = Negative"] ;
60 -> 62 ;
63 [label="gini = 0.0\nsamples = 22\nvalue = [35, 0]\nclass = Negative"] ;
59 -> 63 ;
64 [label="gini = 0.0\nsamples = 15\nvalue = [0, 28]\nclass = Positive"] ;
56 -> 64 ;
}