digraph Tree {
node [shape=box] ;
0 [label="SNF8 <= 0.2601\ngini = 0.3539\nsamples = 331\nvalue = [409, 122]\nclass = Negative"] ;
1 [label="KGFLP2 <= -0.631\ngini = 0.2587\nsamples = 276\nvalue = [372, 67]\nclass = Negative"] ;
0 -> 1 [labeldistance=2.5, labelangle=45, headlabel="True"] ;
2 [label="BTBD18 <= -0.1786\ngini = 0.4782\nsamples = 60\nvalue = [55, 36]\nclass = Negative"] ;
1 -> 2 ;
3 [label="BRD1 <= 0.024\ngini = 0.4688\nsamples = 32\nvalue = [18, 30]\nclass = Positive"] ;
2 -> 3 ;
4 [label="SON <= -1.1341\ngini = 0.2778\nsamples = 20\nvalue = [5, 25]\nclass = Positive"] ;
3 -> 4 ;
5 [label="NDUFB1 <= 0.4018\ngini = 0.32\nsamples = 3\nvalue = [4, 1]\nclass = Negative"] ;
4 -> 5 ;
6 [label="gini = 0.0\nsamples = 2\nvalue = [4, 0]\nclass = Negative"] ;
5 -> 6 ;
7 [label="gini = 0.0\nsamples = 1\nvalue = [0, 1]\nclass = Positive"] ;
5 -> 7 ;
8 [label="C7orf57 <= -0.0272\ngini = 0.0768\nsamples = 17\nvalue = [1, 24]\nclass = Positive"] ;
4 -> 8 ;
9 [label="gini = 0.0\nsamples = 16\nvalue = [0, 24]\nclass = Positive"] ;
8 -> 9 ;
10 [label="gini = 0.0\nsamples = 1\nvalue = [1, 0]\nclass = Negative"] ;
8 -> 10 ;
11 [label="GRN <= -0.7403\ngini = 0.4012\nsamples = 12\nvalue = [13, 5]\nclass = Negative"] ;
3 -> 11 ;
12 [label="gini = 0.0\nsamples = 3\nvalue = [0, 5]\nclass = Positive"] ;
11 -> 12 ;
13 [label="gini = 0.0\nsamples = 9\nvalue = [13, 0]\nclass = Negative"] ;
11 -> 13 ;
14 [label="TCAP <= -0.0524\ngini = 0.2401\nsamples = 28\nvalue = [37, 6]\nclass = Negative"] ;
2 -> 14 ;
15 [label="FLRT3 <= -0.3511\ngini = 0.0512\nsamples = 25\nvalue = [37, 1]\nclass = Negative"] ;
14 -> 15 ;
16 [label="gini = 0.0\nsamples = 1\nvalue = [0, 1]\nclass = Positive"] ;
15 -> 16 ;
17 [label="gini = 0.0\nsamples = 24\nvalue = [37, 0]\nclass = Negative"] ;
15 -> 17 ;
18 [label="gini = 0.0\nsamples = 3\nvalue = [0, 5]\nclass = Positive"] ;
14 -> 18 ;
19 [label="TMEM194B <= -0.9303\ngini = 0.1623\nsamples = 216\nvalue = [317, 31]\nclass = Negative"] ;
1 -> 19 ;
20 [label="LSM6 <= -0.9427\ngini = 0.42\nsamples = 7\nvalue = [3, 7]\nclass = Positive"] ;
19 -> 20 ;
21 [label="gini = 0.0\nsamples = 3\nvalue = [3, 0]\nclass = Negative"] ;
20 -> 21 ;
22 [label="gini = 0.0\nsamples = 4\nvalue = [0, 7]\nclass = Positive"] ;
20 -> 22 ;
23 [label="PPP1R2P9 <= 2.9803\ngini = 0.1319\nsamples = 209\nvalue = [314, 24]\nclass = Negative"] ;
19 -> 23 ;
24 [label="TTYH2 <= -0.8253\ngini = 0.1082\nsamples = 205\nvalue = [312, 19]\nclass = Negative"] ;
23 -> 24 ;
25 [label="gini = 0.0\nsamples = 2\nvalue = [0, 3]\nclass = Positive"] ;
24 -> 25 ;
26 [label="SEPT5 <= 4.2141\ngini = 0.0928\nsamples = 203\nvalue = [312, 16]\nclass = Negative"] ;
24 -> 26 ;
27 [label="TTC3 <= 2.846\ngini = 0.0822\nsamples = 202\nvalue = [312, 14]\nclass = Negative"] ;
26 -> 27 ;
28 [label="TBL2 <= 3.1661\ngini = 0.0658\nsamples = 200\nvalue = [312, 11]\nclass = Negative"] ;
27 -> 28 ;
29 [label="MMP26 <= 2.3489\ngini = 0.0545\nsamples = 199\nvalue = [312, 9]\nclass = Negative"] ;
28 -> 29 ;
30 [label="SLC39A9 <= 4.1719\ngini = 0.0429\nsamples = 198\nvalue = [312, 7]\nclass = Negative"] ;
29 -> 30 ;
31 [label="SH3BP2 <= -1.2826\ngini = 0.031\nsamples = 197\nvalue = [312, 5]\nclass = Negative"] ;
30 -> 31 ;
32 [label="gini = 0.0\nsamples = 1\nvalue = [0, 1]\nclass = Positive"] ;
31 -> 32 ;
33 [label="TNFSF11 <= 6.707\ngini = 0.025\nsamples = 196\nvalue = [312, 4]\nclass = Negative"] ;
31 -> 33 ;
34 [label="MIR4796 <= 12.4854\ngini = 0.0127\nsamples = 194\nvalue = [311, 2]\nclass = Negative"] ;
33 -> 34 ;
35 [label="CGB <= 0.1073\ngini = 0.0064\nsamples = 193\nvalue = [311, 1]\nclass = Negative"] ;
34 -> 35 ;
36 [label="gini = 0.0\nsamples = 191\nvalue = [310, 0]\nclass = Negative"] ;
35 -> 36 ;
37 [label="C21orf15 <= -0.422\ngini = 0.5\nsamples = 2\nvalue = [1, 1]\nclass = Negative"] ;
35 -> 37 ;
38 [label="gini = 0.0\nsamples = 1\nvalue = [0, 1]\nclass = Positive"] ;
37 -> 38 ;
39 [label="gini = 0.0\nsamples = 1\nvalue = [1, 0]\nclass = Negative"] ;
37 -> 39 ;
40 [label="gini = 0.0\nsamples = 1\nvalue = [0, 1]\nclass = Positive"] ;
34 -> 40 ;
41 [label="CYP4B1 <= -0.3021\ngini = 0.4444\nsamples = 2\nvalue = [1, 2]\nclass = Positive"] ;
33 -> 41 ;
42 [label="gini = 0.0\nsamples = 1\nvalue = [0, 2]\nclass = Positive"] ;
41 -> 42 ;
43 [label="gini = 0.0\nsamples = 1\nvalue = [1, 0]\nclass = Negative"] ;
41 -> 43 ;
44 [label="gini = 0.0\nsamples = 1\nvalue = [0, 2]\nclass = Positive"] ;
30 -> 44 ;
45 [label="gini = 0.0\nsamples = 1\nvalue = [0, 2]\nclass = Positive"] ;
29 -> 45 ;
46 [label="gini = 0.0\nsamples = 1\nvalue = [0, 2]\nclass = Positive"] ;
28 -> 46 ;
47 [label="gini = 0.0\nsamples = 2\nvalue = [0, 3]\nclass = Positive"] ;
27 -> 47 ;
48 [label="gini = 0.0\nsamples = 1\nvalue = [0, 2]\nclass = Positive"] ;
26 -> 48 ;
49 [label="NCAPD3 <= -0.2059\ngini = 0.4082\nsamples = 4\nvalue = [2, 5]\nclass = Positive"] ;
23 -> 49 ;
50 [label="gini = 0.0\nsamples = 2\nvalue = [0, 5]\nclass = Positive"] ;
49 -> 50 ;
51 [label="gini = 0.0\nsamples = 2\nvalue = [2, 0]\nclass = Negative"] ;
49 -> 51 ;
52 [label="LOC285084 <= -0.2719\ngini = 0.4809\nsamples = 55\nvalue = [37, 55]\nclass = Positive"] ;
0 -> 52 [labeldistance=2.5, labelangle=-45, headlabel="False"] ;
53 [label="gini = 0.0\nsamples = 9\nvalue = [15, 0]\nclass = Negative"] ;
52 -> 53 ;
54 [label="METTL7A <= -0.018\ngini = 0.4082\nsamples = 46\nvalue = [22, 55]\nclass = Positive"] ;
52 -> 54 ;
55 [label="LGALS7 <= -0.04\ngini = 0.1913\nsamples = 31\nvalue = [6, 50]\nclass = Positive"] ;
54 -> 55 ;
56 [label="PSPH <= -0.454\ngini = 0.074\nsamples = 27\nvalue = [2, 50]\nclass = Positive"] ;
55 -> 56 ;
57 [label="gini = 0.0\nsamples = 2\nvalue = [2, 0]\nclass = Negative"] ;
56 -> 57 ;
58 [label="gini = 0.0\nsamples = 25\nvalue = [0, 50]\nclass = Positive"] ;
56 -> 58 ;
59 [label="gini = 0.0\nsamples = 4\nvalue = [4, 0]\nclass = Negative"] ;
55 -> 59 ;
60 [label="REPS2 <= -0.2988\ngini = 0.3628\nsamples = 15\nvalue = [16, 5]\nclass = Negative"] ;
54 -> 60 ;
61 [label="gini = 0.0\nsamples = 4\nvalue = [0, 5]\nclass = Positive"] ;
60 -> 61 ;
62 [label="gini = 0.0\nsamples = 11\nvalue = [16, 0]\nclass = Negative"] ;
60 -> 62 ;
}