digraph Tree {
node [shape=box] ;
0 [label="CCDC115 <= -0.5284\ngini = 0.3539\nsamples = 339\nvalue = [409, 122]\nclass = Negative"] ;
1 [label="SLC9A7P1 <= -0.3215\ngini = 0.4979\nsamples = 106\nvalue = [91, 80]\nclass = Negative"] ;
0 -> 1 [labeldistance=2.5, labelangle=45, headlabel="True"] ;
2 [label="CACNB4 <= -0.4887\ngini = 0.4239\nsamples = 49\nvalue = [25, 57]\nclass = Positive"] ;
1 -> 2 ;
3 [label="MARCH2 <= -1.5374\ngini = 0.3512\nsamples = 14\nvalue = [17, 5]\nclass = Negative"] ;
2 -> 3 ;
4 [label="gini = 0.0\nsamples = 2\nvalue = [0, 4]\nclass = Positive"] ;
3 -> 4 ;
5 [label="MVD <= 6.9754\ngini = 0.1049\nsamples = 12\nvalue = [17, 1]\nclass = Negative"] ;
3 -> 5 ;
6 [label="gini = 0.0\nsamples = 11\nvalue = [17, 0]\nclass = Negative"] ;
5 -> 6 ;
7 [label="gini = 0.0\nsamples = 1\nvalue = [0, 1]\nclass = Positive"] ;
5 -> 7 ;
8 [label="ZNF252 <= -0.974\ngini = 0.2311\nsamples = 35\nvalue = [8, 52]\nclass = Positive"] ;
2 -> 8 ;
9 [label="gini = 0.0\nsamples = 2\nvalue = [3, 0]\nclass = Negative"] ;
8 -> 9 ;
10 [label="SETD9 <= 1.1318\ngini = 0.16\nsamples = 33\nvalue = [5, 52]\nclass = Positive"] ;
8 -> 10 ;
11 [label="MYO10 <= 1.7841\ngini = 0.0377\nsamples = 28\nvalue = [1, 51]\nclass = Positive"] ;
10 -> 11 ;
12 [label="gini = 0.0\nsamples = 27\nvalue = [0, 51]\nclass = Positive"] ;
11 -> 12 ;
13 [label="gini = 0.0\nsamples = 1\nvalue = [1, 0]\nclass = Negative"] ;
11 -> 13 ;
14 [label="ZNF793 <= -1.1038\ngini = 0.32\nsamples = 5\nvalue = [4, 1]\nclass = Negative"] ;
10 -> 14 ;
15 [label="gini = 0.0\nsamples = 1\nvalue = [0, 1]\nclass = Positive"] ;
14 -> 15 ;
16 [label="gini = 0.0\nsamples = 4\nvalue = [4, 0]\nclass = Negative"] ;
14 -> 16 ;
17 [label="HFE <= 0.2994\ngini = 0.3833\nsamples = 57\nvalue = [66, 23]\nclass = Negative"] ;
1 -> 17 ;
18 [label="FAM91A1 <= -0.9528\ngini = 0.1483\nsamples = 38\nvalue = [57, 5]\nclass = Negative"] ;
17 -> 18 ;
19 [label="gini = 0.0\nsamples = 2\nvalue = [0, 2]\nclass = Positive"] ;
18 -> 19 ;
20 [label="RAD21-AS1 <= 0.9013\ngini = 0.095\nsamples = 36\nvalue = [57, 3]\nclass = Negative"] ;
18 -> 20 ;
21 [label="RGS2 <= -0.4835\ngini = 0.0339\nsamples = 34\nvalue = [57, 1]\nclass = Negative"] ;
20 -> 21 ;
22 [label="gini = 0.0\nsamples = 1\nvalue = [0, 1]\nclass = Positive"] ;
21 -> 22 ;
23 [label="gini = 0.0\nsamples = 33\nvalue = [57, 0]\nclass = Negative"] ;
21 -> 23 ;
24 [label="gini = 0.0\nsamples = 2\nvalue = [0, 2]\nclass = Positive"] ;
20 -> 24 ;
25 [label="KHDRBS3 <= -0.0166\ngini = 0.4444\nsamples = 19\nvalue = [9, 18]\nclass = Positive"] ;
17 -> 25 ;
26 [label="REST <= 1.0095\ngini = 0.2449\nsamples = 14\nvalue = [3, 18]\nclass = Positive"] ;
25 -> 26 ;
27 [label="gini = 0.0\nsamples = 11\nvalue = [0, 18]\nclass = Positive"] ;
26 -> 27 ;
28 [label="gini = 0.0\nsamples = 3\nvalue = [3, 0]\nclass = Negative"] ;
26 -> 28 ;
29 [label="gini = 0.0\nsamples = 5\nvalue = [6, 0]\nclass = Negative"] ;
25 -> 29 ;
30 [label="RBBP8 <= -0.705\ngini = 0.2061\nsamples = 233\nvalue = [318, 42]\nclass = Negative"] ;
0 -> 30 [labeldistance=2.5, labelangle=-45, headlabel="False"] ;
31 [label="RRN3P1 <= -0.3967\ngini = 0.4567\nsamples = 14\nvalue = [6, 11]\nclass = Positive"] ;
30 -> 31 ;
32 [label="C2orf81 <= 0.6931\ngini = 0.1528\nsamples = 9\nvalue = [1, 11]\nclass = Positive"] ;
31 -> 32 ;
33 [label="gini = 0.0\nsamples = 8\nvalue = [0, 11]\nclass = Positive"] ;
32 -> 33 ;
34 [label="gini = 0.0\nsamples = 1\nvalue = [1, 0]\nclass = Negative"] ;
32 -> 34 ;
35 [label="gini = 0.0\nsamples = 5\nvalue = [5, 0]\nclass = Negative"] ;
31 -> 35 ;
36 [label="FBXO28 <= 2.0625\ngini = 0.1644\nsamples = 219\nvalue = [312, 31]\nclass = Negative"] ;
30 -> 36 ;
37 [label="MRPL42P5 <= -1.3896\ngini = 0.1381\nsamples = 213\nvalue = [310, 25]\nclass = Negative"] ;
36 -> 37 ;
38 [label="gini = 0.0\nsamples = 2\nvalue = [0, 3]\nclass = Positive"] ;
37 -> 38 ;
39 [label="RSBN1 <= -0.5114\ngini = 0.1237\nsamples = 211\nvalue = [310, 22]\nclass = Negative"] ;
37 -> 39 ;
40 [label="OSBPL5 <= 0.8688\ngini = 0.3856\nsamples = 33\nvalue = [34, 12]\nclass = Negative"] ;
39 -> 40 ;
41 [label="STAP2 <= -0.7895\ngini = 0.2832\nsamples = 29\nvalue = [34, 7]\nclass = Negative"] ;
40 -> 41 ;
42 [label="gini = 0.0\nsamples = 3\nvalue = [0, 4]\nclass = Positive"] ;
41 -> 42 ;
43 [label="FCGR2C <= 0.6923\ngini = 0.149\nsamples = 26\nvalue = [34, 3]\nclass = Negative"] ;
41 -> 43 ;
44 [label="ERI2 <= -1.3317\ngini = 0.0555\nsamples = 24\nvalue = [34, 1]\nclass = Negative"] ;
43 -> 44 ;
45 [label="gini = 0.0\nsamples = 1\nvalue = [0, 1]\nclass = Positive"] ;
44 -> 45 ;
46 [label="gini = 0.0\nsamples = 23\nvalue = [34, 0]\nclass = Negative"] ;
44 -> 46 ;
47 [label="gini = 0.0\nsamples = 2\nvalue = [0, 2]\nclass = Positive"] ;
43 -> 47 ;
48 [label="gini = 0.0\nsamples = 4\nvalue = [0, 5]\nclass = Positive"] ;
40 -> 48 ;
49 [label="AUP1 <= -1.6517\ngini = 0.0675\nsamples = 178\nvalue = [276, 10]\nclass = Negative"] ;
39 -> 49 ;
50 [label="gini = 0.0\nsamples = 1\nvalue = [0, 2]\nclass = Positive"] ;
49 -> 50 ;
51 [label="SNX24 <= -1.0976\ngini = 0.0548\nsamples = 177\nvalue = [276, 8]\nclass = Negative"] ;
49 -> 51 ;
52 [label="LOC728323 <= -0.5359\ngini = 0.4444\nsamples = 3\nvalue = [1, 2]\nclass = Positive"] ;
51 -> 52 ;
53 [label="gini = 0.0\nsamples = 1\nvalue = [1, 0]\nclass = Negative"] ;
52 -> 53 ;
54 [label="gini = 0.0\nsamples = 2\nvalue = [0, 2]\nclass = Positive"] ;
52 -> 54 ;
55 [label="F12 <= 2.9947\ngini = 0.0418\nsamples = 174\nvalue = [275, 6]\nclass = Negative"] ;
51 -> 55 ;
56 [label="MAPKAPK2 <= 3.9965\ngini = 0.0351\nsamples = 173\nvalue = [275, 5]\nclass = Negative"] ;
55 -> 56 ;
57 [label="NDN <= 2.1685\ngini = 0.0283\nsamples = 172\nvalue = [275, 4]\nclass = Negative"] ;
56 -> 57 ;
58 [label="TNFRSF10B <= 4.1788\ngini = 0.0214\nsamples = 170\nvalue = [274, 3]\nclass = Negative"] ;
57 -> 58 ;
59 [label="CDCA8 <= -0.9148\ngini = 0.0144\nsamples = 169\nvalue = [274, 2]\nclass = Negative"] ;
58 -> 59 ;
60 [label="RICTOR <= 0.5839\ngini = 0.4444\nsamples = 3\nvalue = [2, 1]\nclass = Negative"] ;
59 -> 60 ;
61 [label="gini = 0.0\nsamples = 2\nvalue = [2, 0]\nclass = Negative"] ;
60 -> 61 ;
62 [label="gini = 0.0\nsamples = 1\nvalue = [0, 1]\nclass = Positive"] ;
60 -> 62 ;
63 [label="GBP3 <= 2.6137\ngini = 0.0073\nsamples = 166\nvalue = [272, 1]\nclass = Negative"] ;
59 -> 63 ;
64 [label="gini = 0.0\nsamples = 164\nvalue = [271, 0]\nclass = Negative"] ;
63 -> 64 ;
65 [label="PITPNM2 <= -0.5326\ngini = 0.5\nsamples = 2\nvalue = [1, 1]\nclass = Negative"] ;
63 -> 65 ;
66 [label="gini = 0.0\nsamples = 1\nvalue = [1, 0]\nclass = Negative"] ;
65 -> 66 ;
67 [label="gini = 0.0\nsamples = 1\nvalue = [0, 1]\nclass = Positive"] ;
65 -> 67 ;
68 [label="gini = 0.0\nsamples = 1\nvalue = [0, 1]\nclass = Positive"] ;
58 -> 68 ;
69 [label="NMNAT1 <= -0.1031\ngini = 0.5\nsamples = 2\nvalue = [1, 1]\nclass = Negative"] ;
57 -> 69 ;
70 [label="gini = 0.0\nsamples = 1\nvalue = [0, 1]\nclass = Positive"] ;
69 -> 70 ;
71 [label="gini = 0.0\nsamples = 1\nvalue = [1, 0]\nclass = Negative"] ;
69 -> 71 ;
72 [label="gini = 0.0\nsamples = 1\nvalue = [0, 1]\nclass = Positive"] ;
56 -> 72 ;
73 [label="gini = 0.0\nsamples = 1\nvalue = [0, 1]\nclass = Positive"] ;
55 -> 73 ;
74 [label="ABCC13 <= -0.1908\ngini = 0.375\nsamples = 6\nvalue = [2, 6]\nclass = Positive"] ;
36 -> 74 ;
75 [label="gini = 0.0\nsamples = 4\nvalue = [0, 6]\nclass = Positive"] ;
74 -> 75 ;
76 [label="gini = 0.0\nsamples = 2\nvalue = [2, 0]\nclass = Negative"] ;
74 -> 76 ;
}