digraph Tree {
node [shape=box] ;
0 [label="PGAP3 <= -0.0216\ngini = 0.358\nsamples = 347\nvalue = [407, 124]\nclass = Negative"] ;
1 [label="PRIM1 <= -1.2944\ngini = 0.2449\nsamples = 300\nvalue = [396, 66]\nclass = Negative"] ;
0 -> 1 [labeldistance=2.5, labelangle=45, headlabel="True"] ;
2 [label="gini = 0.0\nsamples = 3\nvalue = [0, 5]\nclass = Positive"] ;
1 -> 2 ;
3 [label="RSF1 <= 1.2456\ngini = 0.2313\nsamples = 297\nvalue = [396, 61]\nclass = Negative"] ;
1 -> 3 ;
4 [label="LOC100506801 <= -1.0652\ngini = 0.212\nsamples = 290\nvalue = [394, 54]\nclass = Negative"] ;
3 -> 4 ;
5 [label="gini = 0.0\nsamples = 3\nvalue = [0, 5]\nclass = Positive"] ;
4 -> 5 ;
6 [label="OCLN <= 2.0426\ngini = 0.1968\nsamples = 287\nvalue = [394, 49]\nclass = Negative"] ;
4 -> 6 ;
7 [label="RMRP <= -0.1936\ngini = 0.1752\nsamples = 280\nvalue = [391, 42]\nclass = Negative"] ;
6 -> 7 ;
8 [label="LOC440970 <= 0.1059\ngini = 0.4444\nsamples = 6\nvalue = [3, 6]\nclass = Positive"] ;
7 -> 8 ;
9 [label="gini = 0.0\nsamples = 3\nvalue = [0, 6]\nclass = Positive"] ;
8 -> 9 ;
10 [label="gini = 0.0\nsamples = 3\nvalue = [3, 0]\nclass = Negative"] ;
8 -> 10 ;
11 [label="PCDHB19P <= 1.4958\ngini = 0.1554\nsamples = 274\nvalue = [388, 36]\nclass = Negative"] ;
7 -> 11 ;
12 [label="IGFL2 <= 3.8261\ngini = 0.1169\nsamples = 252\nvalue = [361, 24]\nclass = Negative"] ;
11 -> 12 ;
13 [label="SNORD102 <= 3.4614\ngini = 0.1039\nsamples = 250\nvalue = [361, 21]\nclass = Negative"] ;
12 -> 13 ;
14 [label="DAGLA <= 3.1955\ngini = 0.0905\nsamples = 248\nvalue = [361, 18]\nclass = Negative"] ;
13 -> 14 ;
15 [label="FAM109A <= 10.1754\ngini = 0.0721\nsamples = 245\nvalue = [360, 14]\nclass = Negative"] ;
14 -> 15 ;
16 [label="CHD5 <= -0.2569\ngini = 0.0624\nsamples = 244\nvalue = [360, 12]\nclass = Negative"] ;
15 -> 16 ;
17 [label="gini = 0.0\nsamples = 2\nvalue = [0, 2]\nclass = Positive"] ;
16 -> 17 ;
18 [label="ADHFE1 <= 4.2849\ngini = 0.0526\nsamples = 242\nvalue = [360, 10]\nclass = Negative"] ;
16 -> 18 ;
19 [label="TAS2R14 <= 1.9256\ngini = 0.0425\nsamples = 241\nvalue = [360, 8]\nclass = Negative"] ;
18 -> 19 ;
20 [label="LOC100130522 <= -0.9236\ngini = 0.0273\nsamples = 235\nvalue = [356, 5]\nclass = Negative"] ;
19 -> 20 ;
21 [label="gini = 0.0\nsamples = 1\nvalue = [0, 1]\nclass = Positive"] ;
20 -> 21 ;
22 [label="TKT <= -1.3117\ngini = 0.022\nsamples = 234\nvalue = [356, 4]\nclass = Negative"] ;
20 -> 22 ;
23 [label="LEPREL4 <= 2.1059\ngini = 0.5\nsamples = 2\nvalue = [1, 1]\nclass = Negative"] ;
22 -> 23 ;
24 [label="gini = 0.0\nsamples = 1\nvalue = [1, 0]\nclass = Negative"] ;
23 -> 24 ;
25 [label="gini = 0.0\nsamples = 1\nvalue = [0, 1]\nclass = Positive"] ;
23 -> 25 ;
26 [label="MPP6 <= 6.7192\ngini = 0.0166\nsamples = 232\nvalue = [355, 3]\nclass = Negative"] ;
22 -> 26 ;
27 [label="SNCAIP <= 5.9159\ngini = 0.0111\nsamples = 231\nvalue = [355, 2]\nclass = Negative"] ;
26 -> 27 ;
28 [label="LINC00052 <= 2.3948\ngini = 0.0056\nsamples = 229\nvalue = [353, 1]\nclass = Negative"] ;
27 -> 28 ;
29 [label="gini = 0.0\nsamples = 226\nvalue = [351, 0]\nclass = Negative"] ;
28 -> 29 ;
30 [label="ZNF254 <= 0.2408\ngini = 0.4444\nsamples = 3\nvalue = [2, 1]\nclass = Negative"] ;
28 -> 30 ;
31 [label="gini = 0.0\nsamples = 1\nvalue = [0, 1]\nclass = Positive"] ;
30 -> 31 ;
32 [label="gini = 0.0\nsamples = 2\nvalue = [2, 0]\nclass = Negative"] ;
30 -> 32 ;
33 [label="SH3BP1 <= -0.4447\ngini = 0.4444\nsamples = 2\nvalue = [2, 1]\nclass = Negative"] ;
27 -> 33 ;
34 [label="gini = 0.0\nsamples = 1\nvalue = [0, 1]\nclass = Positive"] ;
33 -> 34 ;
35 [label="gini = 0.0\nsamples = 1\nvalue = [2, 0]\nclass = Negative"] ;
33 -> 35 ;
36 [label="gini = 0.0\nsamples = 1\nvalue = [0, 1]\nclass = Positive"] ;
26 -> 36 ;
37 [label="SURF6 <= -0.791\ngini = 0.4898\nsamples = 6\nvalue = [4, 3]\nclass = Negative"] ;
19 -> 37 ;
38 [label="gini = 0.0\nsamples = 3\nvalue = [4, 0]\nclass = Negative"] ;
37 -> 38 ;
39 [label="gini = 0.0\nsamples = 3\nvalue = [0, 3]\nclass = Positive"] ;
37 -> 39 ;
40 [label="gini = 0.0\nsamples = 1\nvalue = [0, 2]\nclass = Positive"] ;
18 -> 40 ;
41 [label="gini = 0.0\nsamples = 1\nvalue = [0, 2]\nclass = Positive"] ;
15 -> 41 ;
42 [label="IQSEC1 <= -0.0787\ngini = 0.32\nsamples = 3\nvalue = [1, 4]\nclass = Positive"] ;
14 -> 42 ;
43 [label="gini = 0.0\nsamples = 1\nvalue = [1, 0]\nclass = Negative"] ;
42 -> 43 ;
44 [label="gini = 0.0\nsamples = 2\nvalue = [0, 4]\nclass = Positive"] ;
42 -> 44 ;
45 [label="gini = 0.0\nsamples = 2\nvalue = [0, 3]\nclass = Positive"] ;
13 -> 45 ;
46 [label="gini = 0.0\nsamples = 2\nvalue = [0, 3]\nclass = Positive"] ;
12 -> 46 ;
47 [label="LOC100506433 <= -0.2149\ngini = 0.426\nsamples = 22\nvalue = [27, 12]\nclass = Negative"] ;
11 -> 47 ;
48 [label="gini = 0.0\nsamples = 4\nvalue = [0, 8]\nclass = Positive"] ;
47 -> 48 ;
49 [label="PKNOX1 <= -0.3232\ngini = 0.2248\nsamples = 18\nvalue = [27, 4]\nclass = Negative"] ;
47 -> 49 ;
50 [label="gini = 0.0\nsamples = 2\nvalue = [0, 3]\nclass = Positive"] ;
49 -> 50 ;
51 [label="TAS1R1 <= -0.1679\ngini = 0.0689\nsamples = 16\nvalue = [27, 1]\nclass = Negative"] ;
49 -> 51 ;
52 [label="gini = 0.0\nsamples = 1\nvalue = [0, 1]\nclass = Positive"] ;
51 -> 52 ;
53 [label="gini = 0.0\nsamples = 15\nvalue = [27, 0]\nclass = Negative"] ;
51 -> 53 ;
54 [label="MYBL2 <= -0.5282\ngini = 0.42\nsamples = 7\nvalue = [3, 7]\nclass = Positive"] ;
6 -> 54 ;
55 [label="gini = 0.0\nsamples = 3\nvalue = [3, 0]\nclass = Negative"] ;
54 -> 55 ;
56 [label="gini = 0.0\nsamples = 4\nvalue = [0, 7]\nclass = Positive"] ;
54 -> 56 ;
57 [label="VCPIP1 <= -0.0806\ngini = 0.3457\nsamples = 7\nvalue = [2, 7]\nclass = Positive"] ;
3 -> 57 ;
58 [label="gini = 0.0\nsamples = 2\nvalue = [2, 0]\nclass = Negative"] ;
57 -> 58 ;
59 [label="gini = 0.0\nsamples = 5\nvalue = [0, 7]\nclass = Positive"] ;
57 -> 59 ;
60 [label="ARHGAP26 <= -0.7776\ngini = 0.268\nsamples = 47\nvalue = [11, 58]\nclass = Positive"] ;
0 -> 60 [labeldistance=2.5, labelangle=-45, headlabel="False"] ;
61 [label="ATP6V1B2 <= -0.0439\ngini = 0.2188\nsamples = 5\nvalue = [7, 1]\nclass = Negative"] ;
60 -> 61 ;
62 [label="gini = 0.0\nsamples = 4\nvalue = [7, 0]\nclass = Negative"] ;
61 -> 62 ;
63 [label="gini = 0.0\nsamples = 1\nvalue = [0, 1]\nclass = Positive"] ;
61 -> 63 ;
64 [label="LINC00304 <= 0.6335\ngini = 0.1225\nsamples = 42\nvalue = [4, 57]\nclass = Positive"] ;
60 -> 64 ;
65 [label="AKAP17A <= -1.5504\ngini = 0.0345\nsamples = 39\nvalue = [1, 56]\nclass = Positive"] ;
64 -> 65 ;
66 [label="gini = 0.0\nsamples = 1\nvalue = [1, 0]\nclass = Negative"] ;
65 -> 66 ;
67 [label="gini = 0.0\nsamples = 38\nvalue = [0, 56]\nclass = Positive"] ;
65 -> 67 ;
68 [label="SERF2 <= -0.1579\ngini = 0.375\nsamples = 3\nvalue = [3, 1]\nclass = Negative"] ;
64 -> 68 ;
69 [label="gini = 0.0\nsamples = 1\nvalue = [0, 1]\nclass = Positive"] ;
68 -> 69 ;
70 [label="gini = 0.0\nsamples = 2\nvalue = [3, 0]\nclass = Negative"] ;
68 -> 70 ;
}